FANN_FIX_2.0
decimal_point=7
num_layers=3
learning_rate=0.200000
connection_rate=1.000000
network_type=0
learning_momentum=0.000000
training_algorithm=3
train_error_function=1
train_stop_function=0
cascade_output_change_fraction=0.010000
quickprop_decay=-0.000100
quickprop_mu=1.750000
rprop_increase_factor=1.200000
rprop_decrease_factor=0.500000
rprop_delta_min=0.000000
rprop_delta_max=50.000000
rprop_delta_zero=0.100000
cascade_output_stagnation_epochs=12
cascade_candidate_change_fraction=0.010000
cascade_candidate_stagnation_epochs=12
cascade_max_out_epochs=150
cascade_min_out_epochs=50
cascade_max_cand_epochs=150
cascade_min_cand_epochs=50
cascade_num_candidate_groups=2
bit_fail_limit=45
cascade_candidate_limit=128000
cascade_weight_multiplier=51
cascade_activation_functions_count=10
cascade_activation_functions=3 5 7 8 10 11 14 15 16 17 
cascade_activation_steepnesses_count=4
cascade_activation_steepnesses=32 64 96 128 
layer_sizes=3 101 2 
neurons (num_inputs, activation_function, activation_steepness)=(0, 0, 0) (0, 0, 0) (0, 0, 0) (3, 3, 64) (3, 3, 64) (3, 3, 64) (3, 3, 64) (3, 3, 64) (3, 3, 64) (3, 3, 64) (3, 3, 64) (3, 3, 64) (3, 3, 64) (3, 3, 64) (3, 3, 64) (3, 3, 64) (3, 3, 64) (3, 3, 64) (3, 3, 64) (3, 3, 64) (3, 3, 64) (3, 3, 64) (3, 3, 64) (3, 3, 64) (3, 3, 64) (3, 3, 64) (3, 3, 64) (3, 3, 64) (3, 3, 64) (3, 3, 64) (3, 3, 64) (3, 3, 64) (3, 3, 64) (3, 3, 64) (3, 3, 64) (3, 3, 64) (3, 3, 64) (3, 3, 64) (3, 3, 64) (3, 3, 64) (3, 3, 64) (3, 3, 64) (3, 3, 64) (3, 3, 64) (3, 3, 64) (3, 3, 64) (3, 3, 64) (3, 3, 64) (3, 3, 64) (3, 3, 64) (3, 3, 64) (3, 3, 64) (3, 3, 64) (3, 3, 64) (3, 3, 64) (3, 3, 64) (3, 3, 64) (3, 3, 64) (3, 3, 64) (3, 3, 64) (3, 3, 64) (3, 3, 64) (3, 3, 64) (3, 3, 64) (3, 3, 64) (3, 3, 64) (3, 3, 64) (3, 3, 64) (3, 3, 64) (3, 3, 64) (3, 3, 64) (3, 3, 64) (3, 3, 64) (3, 3, 64) (3, 3, 64) (3, 3, 64) (3, 3, 64) (3, 3, 64) (3, 3, 64) (3, 3, 64) (3, 3, 64) (3, 3, 64) (3, 3, 64) (3, 3, 64) (3, 3, 64) (3, 3, 64) (3, 3, 64) (3, 3, 64) (3, 3, 64) (3, 3, 64) (3, 3, 64) (3, 3, 64) (3, 3, 64) (3, 3, 64) (3, 3, 64) (3, 3, 64) (3, 3, 64) (3, 3, 64) (3, 3, 64) (3, 3, 64) (3, 3, 64) (3, 3, 64) (3, 3, 64) (0, 3, 64) (101, 3, 64) (0, 3, 64) 
connections (connected_to_neuron, weight)=(0, 141509) (1, 115852) (2, -25339) (0, 166775) (1, 166798) (2, 383) (0, 86090) (1, 68958) (2, -16832) (0, 167703) (1, 167726) (2, 383) (0, 165089) (1, 165113) (2, 383) (0, 70779) (1, 71277) (2, -39088) (0, 166067) (1, 166090) (2, 383) (0, 139642) (1, 112465) (2, -26865) (0, 168453) (1, 168476) (2, 383) (0, 123509) (1, 179438) (2, -55409) (0, 162531) (1, 162554) (2, 383) (0, 123707) (1, 178865) (2, -54638) (0, 86575) (1, 69333) (2, -16942) (0, 154702) (1, 154726) (2, 381) (0, 167850) (1, 167873) (2, 383) (0, 85898) (1, 68714) (2, -16885) (0, 125831) (1, 181185) (2, -54833) (0, 73936) (1, 58431) (2, -15212) (0, 86481) (1, 69226) (2, -16955) (0, -191998) (1, -192000) (2, 191927) (0, 162636) (1, 162659) (2, 382) (0, 166997) (1, 167020) (2, 383) (0, 168763) (1, 168786) (2, 384) (0, 164679) (1, 164702) (2, 383) (0, 158677) (1, 158701) (2, 382) (0, 81635) (1, 65380) (2, -15956) (0, 94209) (1, 75577) (2, -18329) (0, 79038) (1, 63028) (2, -15713) (0, 160403) (1, 160426) (2, 382) (0, 81136) (1, 64756) (2, -16083) (0, 160745) (1, 160769) (2, 382) (0, 78083) (1, 81352) (2, -42973) (0, 82855) (1, 84772) (2, -43550) (0, -191998) (1, -192000) (2, 191915) (0, 165411) (1, 165435) (2, 383) (0, 87086) (1, 69735) (2, -17051) (0, 75403) (1, 60022) (2, -15087) (0, 150297) (1, 150321) (2, 381) (0, 164014) (1, 164037) (2, 383) (0, 79370) (1, 63312) (2, -15761) (0, 51258) (1, 40299) (2, -10686) (0, 160054) (1, 160077) (2, 382) (0, 161606) (1, 161630) (2, 383) (0, 166757) (1, 166780) (2, 383) (0, 169196) (1, 169219) (2, 383) (0, -191998) (1, -192000) (2, 191928) (0, 86847) (1, 69572) (2, -16975) (0, 147019) (1, 192000) (2, -44623) (0, 165644) (1, 165667) (2, 383) (0, 168618) (1, 168641) (2, 383) (0, 159870) (1, 159894) (2, 382) (0, -191998) (1, -192000) (2, 191927) (0, 168434) (1, 168457) (2, 383) (0, 84297) (1, 67402) (2, -16596) (0, 86701) (1, 69365) (2, -17036) (0, 86262) (1, 69061) (2, -16901) (0, 169800) (1, 169823) (2, 384) (0, 85335) (1, 68245) (2, -16790) (0, 166686) (1, 192000) (2, -24958) (0, 116069) (1, 95497) (2, -20257) (0, -191998) (1, -192000) (2, 191931) (0, 122947) (1, 178790) (2, -55323) (0, 83300) (1, 66837) (2, -16163) (0, 167479) (1, 167502) (2, 383) (0, 163072) (1, 163096) (2, 383) (0, 166368) (1, 192000) (2, -25276) (0, 168422) (1, 168445) (2, 383) (0, 164972) (1, 164996) (2, 383) (0, 168991) (1, 169014) (2, 383) (0, -191998) (1, -192000) (2, 191927) (0, 85722) (1, 68585) (2, -16838) (0, 111252) (1, 111278) (2, 375) (0, 167159) (1, 167182) (2, 383) (0, 166458) (1, 166481) (2, 383) (0, 163504) (1, 163528) (2, 383) (0, 52023) (1, 40812) (2, -10939) (0, 166524) (1, 166547) (2, 383) (0, 124058) (1, 179615) (2, -55037) (0, 126052) (1, 182001) (2, -55428) (0, 86522) (1, 69271) (2, -16951) (0, 144772) (1, 144796) (2, 381) (0, 166551) (1, 166574) (2, 383) (0, 90892) (1, 72454) (2, -18138) (0, -191998) (1, -192000) (2, 191928) (0, 116128) (1, 116154) (2, 376) (0, 168888) (1, 168911) (2, 383) (0, 166293) (1, 166316) (2, 383) (0, 168477) (1, 168500) (2, 383) (0, 165684) (1, 165707) (2, 383) (0, 86424) (1, 69224) (2, -16900) (0, 165258) (1, 165281) (2, 383) (0, 168047) (1, 168070) (2, 383) (0, 159961) (1, 159985) (2, 382) (0, 86325) (1, 69131) (2, -16894) (0, 167705) (1, 167728) (2, 383) (0, 148212) (1, 148236) (2, 381) (0, 167501) (1, 167524) (2, 383) (0, 126520) (1, 181983) (2, -54942) (0, 57284) (1, 58911) (2, -33938) (0, 146744) (1, 192000) (2, -44898) (3, 11096) (4, 21101) (5, 8113) (6, 21165) (7, 21011) (8, 3871) (9, 21068) (10, 10418) (11, 21201) (12, 13596) (13, 20818) (14, 13557) (15, 8163) (16, 20269) (17, 21165) (18, 8133) (19, 13699) (20, 7087) (21, 8178) (22, -141820) (23, 20724) (24, 21119) (25, 21241) (26, 20968) (27, 20525) (28, 7759) (29, 8663) (30, 7713) (31, 20626) (32, 7842) (33, 20670) (34, 4255) (35, 4330) (36, -184489) (37, 20969) (38, 8176) (39, 7576) (40, 20035) (41, 20898) (42, 7739) (43, 5896) (44, 20623) (45, 20752) (46, 21097) (47, 21233) (48, -140184) (49, 8199) (50, 15677) (51, 21037) (52, 21206) (53, 20613) (54, -144565) (55, 21211) (56, 8060) (57, 8206) (58, 8146) (59, 21289) (60, 8076) (61, 18060) (62, 9409) (63, -130523) (64, 13557) (65, 7821) (66, 21158) (67, 20862) (68, 16828) (69, 21200) (70, 20994) (71, 21241) (72, -141801) (73, 8123) (74, 17359) (75, 21119) (76, 21077) (77, 20894) (78, 5997) (79, 21079) (80, 13604) (81, 13751) (82, 8181) (83, 19766) (84, 21079) (85, 7979) (86, -140838) (87, 17755) (88, 21230) (89, 21074) (90, 21198) (91, 21049) (92, 8182) (93, 20994) (94, 21182) (95, 20569) (96, 8151) (97, 21159) (98, 19959) (99, 21146) (100, 13749) (101, 3370) (102, 15654) (103, -124067) 
