FANN_FIX_2.0
decimal_point=10
num_layers=3
learning_rate=0.200000
connection_rate=1.000000
network_type=0
learning_momentum=0.000000
training_algorithm=3
train_error_function=1
train_stop_function=0
cascade_output_change_fraction=0.010000
quickprop_decay=-0.000100
quickprop_mu=1.750000
rprop_increase_factor=1.200000
rprop_decrease_factor=0.500000
rprop_delta_min=0.000000
rprop_delta_max=50.000000
rprop_delta_zero=0.100000
cascade_output_stagnation_epochs=12
cascade_candidate_change_fraction=0.010000
cascade_candidate_stagnation_epochs=12
cascade_max_out_epochs=150
cascade_min_out_epochs=50
cascade_max_cand_epochs=150
cascade_min_cand_epochs=50
cascade_num_candidate_groups=2
bit_fail_limit=358
cascade_candidate_limit=1024000
cascade_weight_multiplier=410
cascade_activation_functions_count=10
cascade_activation_functions=3 5 7 8 10 11 14 15 16 17 
cascade_activation_steepnesses_count=4
cascade_activation_steepnesses=256 512 768 1024 
layer_sizes=3 101 2 
neurons (num_inputs, activation_function, activation_steepness)=(0, 0, 0) (0, 0, 0) (0, 0, 0) (3, 3, 512) (3, 3, 512) (3, 3, 512) (3, 3, 512) (3, 3, 512) (3, 3, 512) (3, 3, 512) (3, 3, 512) (3, 3, 512) (3, 3, 512) (3, 3, 512) (3, 3, 512) (3, 3, 512) (3, 3, 512) (3, 3, 512) (3, 3, 512) (3, 3, 512) (3, 3, 512) (3, 3, 512) (3, 3, 512) (3, 3, 512) (3, 3, 512) (3, 3, 512) (3, 3, 512) (3, 3, 512) (3, 3, 512) (3, 3, 512) (3, 3, 512) (3, 3, 512) (3, 3, 512) (3, 3, 512) (3, 3, 512) (3, 3, 512) (3, 3, 512) (3, 3, 512) (3, 3, 512) (3, 3, 512) (3, 3, 512) (3, 3, 512) (3, 3, 512) (3, 3, 512) (3, 3, 512) (3, 3, 512) (3, 3, 512) (3, 3, 512) (3, 3, 512) (3, 3, 512) (3, 3, 512) (3, 3, 512) (3, 3, 512) (3, 3, 512) (3, 3, 512) (3, 3, 512) (3, 3, 512) (3, 3, 512) (3, 3, 512) (3, 3, 512) (3, 3, 512) (3, 3, 512) (3, 3, 512) (3, 3, 512) (3, 3, 512) (3, 3, 512) (3, 3, 512) (3, 3, 512) (3, 3, 512) (3, 3, 512) (3, 3, 512) (3, 3, 512) (3, 3, 512) (3, 3, 512) (3, 3, 512) (3, 3, 512) (3, 3, 512) (3, 3, 512) (3, 3, 512) (3, 3, 512) (3, 3, 512) (3, 3, 512) (3, 3, 512) (3, 3, 512) (3, 3, 512) (3, 3, 512) (3, 3, 512) (3, 3, 512) (3, 3, 512) (3, 3, 512) (3, 3, 512) (3, 3, 512) (3, 3, 512) (3, 3, 512) (3, 3, 512) (3, 3, 512) (3, 3, 512) (3, 3, 512) (3, 3, 512) (3, 3, 512) (3, 3, 512) (3, 3, 512) (3, 3, 512) (0, 3, 512) (101, 3, 512) (0, 3, 512) 
connections (connected_to_neuron, weight)=(0, 2067) (1, 12986) (2, 2017) (0, 10596) (1, 19365) (2, -14738) (0, 9519) (1, 8910) (2, -14585) (0, 14796) (1, 7476) (2, -2906) (0, 21229) (1, 4039) (2, 4671) (0, 2433) (1, 3673) (2, 14280) (0, 16815) (1, 16385) (2, -10108) (0, 4296) (1, 7970) (2, 11116) (0, 6599) (1, 2952) (2, 11293) (0, 15607) (1, 9289) (2, 20930) (0, 3749) (1, 11357) (2, 4078) (0, 17491) (1, 534) (2, -1252) (0, 3725) (1, 10064) (2, 13494) (0, 7140) (1, 3448) (2, -10057) (0, 12) (1, 135) (2, -242) (0, 7057) (1, 5699) (2, 5369) (0, 5593) (1, 1101) (2, -4689) (0, 11248) (1, 5398) (2, 7043) (0, 8898) (1, 11998) (2, 12871) (0, 6009) (1, 6194) (2, -7080) (0, 5771) (1, 9943) (2, 1813) (0, 18521) (1, 6047) (2, 16728) (0, 7812) (1, 9769) (2, -5988) (0, 6024) (1, 16917) (2, -5118) (0, 11700) (1, 10924) (2, 3200) (0, 7) (1, 17981) (2, 13454) (0, 13401) (1, 2164) (2, 1855) (0, 355) (1, 13413) (2, -10964) (0, 16693) (1, 900) (2, 13038) (0, 14571) (1, 6908) (2, -17402) (0, 325) (1, 12679) (2, -1094) (0, 18850) (1, 9788) (2, 9257) (0, 16504) (1, 17600) (2, -16562) (0, 2820) (1, 2212) (2, -17701) (0, 13993) (1, 13914) (2, 6118) (0, 7012) (1, 13916) (2, -10592) (0, 5739) (1, 5908) (2, -2558) (0, 5569) (1, 6266) (2, -14376) (0, 10796) (1, 1547) (2, -12578) (0, 6610) (1, 16120) (2, 2633) (0, 8616) (1, 16445) (2, -16232) (0, 20567) (1, 13883) (2, 72) (0, 17153) (1, 8979) (2, -5591) (0, 2095) (1, 11796) (2, -8696) (0, 3958) (1, 4379) (2, -16368) (0, 16743) (1, 11396) (2, 13006) (0, 4683) (1, 17137) (2, -19363) (0, 16200) (1, 1293) (2, -5472) (0, 19722) (1, 12093) (2, -3499) (0, 2726) (1, 18700) (2, -14419) (0, 14053) (1, 5905) (2, 19930) (0, 16647) (1, 5060) (2, 1419) (0, 7618) (1, 800) (2, -21153) (0, 16194) (1, 2900) (2, 2473) (0, 5569) (1, 6859) (2, 2101) (0, 8857) (1, 2189) (2, -7671) (0, 4655) (1, 6873) (2, -16213) (0, 6363) (1, 1663) (2, -13626) (0, 14337) (1, 21382) (2, 6811) (0, 2447) (1, 2697) (2, 5135) (0, 6674) (1, 16750) (2, 16937) (0, 5935) (1, 11986) (2, -15759) (0, 19073) (1, 19600) (2, -17332) (0, 19781) (1, 14378) (2, -7680) (0, 10889) (1, 19956) (2, 5357) (0, 6367) (1, 7402) (2, 6060) (0, 13242) (1, 12057) (2, -20753) (0, 15841) (1, 18420) (2, -17656) (0, 19737) (1, 11346) (2, -17919) (0, 14308) (1, 13789) (2, -14891) (0, 6175) (1, 20468) (2, -19995) (0, 3942) (1, 4990) (2, -1282) (0, 6765) (1, 2652) (2, -4237) (0, 10399) (1, 1034) (2, -13691) (0, 16927) (1, 11922) (2, -18395) (0, 8903) (1, 18289) (2, -5547) (0, 3071) (1, 10120) (2, -20508) (0, 4110) (1, 4551) (2, 9419) (0, 6810) (1, 2873) (2, -7525) (0, 9487) (1, 17190) (2, -19034) (0, 14857) (1, 1952) (2, -20923) (0, 15566) (1, 5895) (2, -10944) (0, 6845) (1, 12661) (2, -5644) (0, 17733) (1, 1647) (2, -4640) (0, 187) (1, 18579) (2, 15894) (0, 2594) (1, 6072) (2, 10192) (0, 12401) (1, 9140) (2, -11611) (0, 12845) (1, 13240) (2, -4738) (0, 10325) (1, 20068) (2, 6322) (0, 19132) (1, 8139) (2, -11881) (0, 20329) (1, 1588) (2, 1757) (0, 20578) (1, 17154) (2, 3378) (0, 4402) (1, 2588) (2, -7832) (0, 12301) (1, 20328) (2, -568) (0, 21233) (1, 20518) (2, -6265) (0, 20672) (1, 1699) (2, 5868) (0, 16990) (1, 14102) (2, -20238) (0, 2018) (1, 5550) (2, 3840) (0, 13009) (1, 15875) (2, 1644) (0, 5465) (1, 13599) (2, -22607) (3, 2010) (4, 12510) (5, 1601) (6, 5278) (7, -1316) (8, 5376) (9, 1370) (10, 2795) (11, 7885) (12, -2971) (13, -5746) (14, -21) (15, 7090) (16, 6797) (17, -4) (18, -6224) (19, 6055) (20, 7614) (21, 6891) (22, 1635) (23, 533) (24, -12484) (25, 3650) (26, -14074) (27, 1698) (28, 3352) (29, 548) (30, 6777) (31, -12063) (32, 5959) (33, -451) (34, 2544) (35, 18472) (36, 8392) (37, 11420) (38, -5617) (39, 2161) (40, 1094) (41, 3424) (42, 6935) (43, 11221) (44, 1444) (45, -5559) (46, -2807) (47, 17200) (48, -10363) (49, 17017) (50, 1838) (51, 3070) (52, 15925) (53, -9394) (54, 3129) (55, 16206) (56, -5091) (57, 556) (58, 9700) (59, 2387) (60, 6144) (61, 3174) (62, -9662) (63, -1060) (64, 1855) (65, 18932) (66, 8696) (67, -2778) (68, 5277) (69, 17915) (70, 15982) (71, 19742) (72, 21338) (73, 241) (74, -2731) (75, -1971) (76, 4763) (77, 19886) (78, -1774) (79, 7241) (80, 2216) (81, 7957) (82, 9372) (83, 10003) (84, 11442) (85, 3840) (86, 1603) (87, 5203) (88, 4290) (89, 14496) (90, -1375) (91, -10440) (92, -13550) (93, -7679) (94, 1229) (95, 11414) (96, -3360) (97, 3152) (98, -12465) (99, 18825) (100, 6736) (101, 3369) (102, 17155) (103, 5342) 
